=== Snapshot: 2025-09-12T12:04:39.101856 ===
Layers: [784, 30, 10]

Layer 0->1
W0 shape: (30, 784)
[[ 0.4916 -0.3565  0.0452 ... -0.7662 -0.7356 -1.1933]
 [ 0.6817  0.6831 -0.7776 ... -0.3023  0.4168  1.1416]
 [ 0.1414 -0.5195  0.0891 ...  0.699   0.0359  0.1859]
 ...
 [-0.3419  0.7384  0.7685 ...  0.3173 -1.1721  1.4091]
 [-0.3349  0.8305 -0.0548 ...  0.573  -0.796   0.7327]
 [-0.022   0.1745  0.6358 ...  0.1683 -1.4907  0.4212]]
b0 shape: (30, 1)
[ 2.1171 -2.7474 -1.3782 -1.276  -0.1244 -1.4032  1.0588 -1.7614  0.2595
 -0.4437 -0.8306 -0.518   0.5285 -1.1183  0.2808  3.6207  0.1703  2.6126
 -1.4499  0.9393  1.4202  0.4423  1.2033  0.4189 -1.3993 -0.0919 -1.2079
 -3.4107  2.2968 -1.3625]

Layer 1->2
W1 shape: (10, 30)
[[-1.6747 -0.845  -1.7306 -2.482   1.3404  1.428  -4.795   4.1869  0.9206
   2.1494  1.0696  0.6745 -4.2363 -0.2676  0.0312  2.7275 -0.1685 -4.6548
  -1.6132  0.448   0.4024 -3.2825 -3.4101 -2.2643 -3.0325 -1.5233 -0.9494
  -0.6698 -3.5069 -2.0426]
 [ 1.8871  1.4489  1.0784  3.5896 -4.8845 -0.2249 -2.7253 -0.7137 -2.1139
   0.1086 -1.877  -1.7015  1.2933  2.3975  0.7513 -3.4056 -3.1849  0.6751
  -1.7611 -4.2354 -0.4712 -0.0953  3.4733 -2.5506  0.5642 -0.7039  3.1166
  -2.82   -3.6248 -1.1016]
 [-3.9343 -0.1577  0.7526  0.0023  0.9967 -1.2989 -2.8847 -0.1196  1.6084
   0.8439  0.1832 -1.0734  4.705  -4.7099 -3.6812 -0.4919  4.2761  1.022
  -2.5369 -1.769   2.1802  0.8105  0.3984  1.6784  4.0041 -2.8367 -5.0869
   3.0947  1.7436 -0.9157]
 [ 2.8149 -3.9267  1.6388 -0.1449  1.0149  2.0157 -3.0369  1.3186 -1.9133
   0.5243 -2.0701 -0.2329 -4.2227 -3.5375 -1.1187 -3.6672 -5.3797  2.4706
   1.4273  2.7019 -2.7649 -0.5543 -0.1265 -1.1623  4.6613 -0.7131  0.5778
   0.441  -1.3523 -0.959 ]
 [ 0.0224  0.5921 -2.0979 -2.4462  3.527  -4.8045  1.6608 -1.3633 -4.0632
  -1.5123 -2.8352 -3.6017 -1.3194 -0.7139  0.2358 -0.8971  0.0901  0.6044
  -2.6978 -1.7117 -0.1039 -2.7173  2.4859 -7.1455 -3.7929  6.7243 -2.1786
  -0.732  -0.5606  0.3282]
 [ 0.4864 -2.6433 -0.0851 -4.6715  0.4048  2.4817 -3.6084 -4.9524  0.9892
  -0.1942 -0.7398 -0.4302  1.6058  3.3809 -4.4324  5.0979  0.3551  4.6768
   2.5986 -3.4345  2.9119 -0.7782 -0.1257  4.0513 -2.1428  1.145   1.5119
  -4.3977  1.2912  3.7424]
 [-0.7784  2.4363  0.1547  3.0377  2.1545 -0.9866 -0.6662  0.179  -1.0257
  -4.194   0.2688  1.7828 -1.8423  2.9322 -4.9097  2.0511  0.7303  2.6401
  -2.7042  0.0315  0.6463 -0.5696  2.3603 -1.1007 -4.7557 -6.6489 -2.8048
  -0.1275 -2.2732 -0.1322]
 [ 1.3354  0.7919  4.2325 -0.8768 -2.1457 -3.1142  5.0129 -0.9271 -0.3802
  -1.3719  5.3898  1.9509  1.9929 -1.9966 -4.2728  0.5238 -2.0598 -0.4697
  -2.698  -2.7577 -1.7903 -1.4191 -2.8898  3.4935  1.696   5.6388  0.1952
  -1.3502 -0.7271  0.0381]
 [ 2.9248  3.9885 -2.1275 -3.9691 -1.5219  3.9749 -3.9961  0.9536  1.4284
  -0.2718 -2.9638 -0.5491 -0.1752 -2.7445 -6.5995 -0.4807 -4.3836 -1.1615
  -3.055   3.224   1.6006 -1.5456 -0.111  -0.446  -4.9614  0.6429 -1.1886
   3.6402  3.3008 -0.0412]
 [-1.0602 -0.1396 -5.4562 -1.6657 -5.6062 -4.4268  2.6749  1.2487  4.8891
   2.068  -7.9636  0.8653 -3.4451  1.6708 -0.5875 -0.047   0.3552 -0.7639
   3.0908 -0.1565 -0.9144 -3.0894 -0.6233 -0.3291 -3.4135  1.1614  0.7302
   1.5725 -0.1668  0.1505]]
b1 shape: (10, 1)
[-0.6156 -0.3918 -6.3053 -4.6264 -1.7143 -5.9007 -3.5415 -2.4341 -8.2435
 -3.8323]
